net 
{
    node_size = (76 36);
}

node SLMR_Agriculture
{
    label = "Agriculture";
    position = (618 599);
    states = ("Low"  "Medium"  "High");
}

node SLMR_Urban
{
    label = "Urban Area";
    position = (1067 595);
    states = ("Low"  "Medium"  "High");
}

node SLMR_Flow
{
    label = "Flow diversity & depth variance";
    position = (1410 139);
    states = ("Natural_to_moderately_modified" 
     "Significantly_to_heavily_modified" 
     "Very_heavily_to_completely_modified");
}

node SLMR_Fines
{
    label = "Fine sediments";
    position = (814 487);
    states = ("Low"  "Medium"  "High");
}

node SLMR_Substrate
{
    label = "Substrate diversity";
    position = (847 132);
    states = ("Natural_to_moderately_modified" 
     "Significantly_to_heavily_modified" 
     "Very_heavily_to_completely_modified");
}

node SLMR_FI
{
    label = "German Fauna Index";
    position = (1182 399);
    states = ("Low"  "Medium"  "High");
}

node SLMR_Width
{
    label = "Width variance";
    position = (237 606);
    states = ("Natural_to_significantly_modified" 
     "Heavily_to_very_heavily_modified"  "Completely_modified");
}

node SLMR_Bank
{
    label = "Bank condition";
    position = (1443 626);
    states = ("Natural_to_moderately_modified" 
     "Significantly_to_completely_modified");
}

node SLMR_Psammal
{
    label = "Psammel preference";
    position = (614 778);
    states = ("Low"  "High");
}

node SLMR_Rheoindex
{
    label = "Rheoindex ";
    position = (1451 303);
    states = ("Low"  "Medium"  "High");
}

node SLMR_Temperature
{
    label = "Water temperature";
    position = (531 -11);
    states = ("No"  "Yes");
}

node SLMR_KLIWA
{
    label = "KLIWA Index MZB";
    position = (291 -12);
    states = ("Low"  "High");
}

node SLMR_Hyporhithral
{
    label = "Hyporhithral preference";
    position = (966 390);
    states = ("Low"  "Medium"  "High");
}

node SLMR_Nutrients
{
    label = "Nutrients";
    position = (272 277);
    states = ("No"  "Yes");
}

node SLMR_TI
{
    label = "Trophic Diatom Index";
    position = (216 415);
    states = ("Low"  "Medium"  "High");
}

node SLMR_SI
{
    label = "German Saprobic Index";
    position = (475 272);
    states = ("Low"  "Medium"  "High");
}

node SLMR_Epirhithral
{
    label = "Epirhithral preference";
    position = (410 126);
    states = ("Low"  "Medium"  "High");
}

node SLMR_AFF
{
    label = "Active filter feeders";
    position = (418 467);
    states = ("Low"  "High");
}

node SLMR_EPTCBO
{
    label = "EPTCBO taxa";
    position = (652 368);
    states = ("Low"  "Medium"  "High");
}

node SLMR_Littoral
{
    label = "Littoral preference";
    position = (1157 -16);
    states = ("Low"  "Medium"  "High");
}

node SLMR_SpecialCrops
{
    label = "Special crops";
    position = (1017 756);
    states = ("Low"  "High");
}

node SLMR_SPEAR
{
    label = "SPEARpesticides";
    position = (835 607);
    states = ("Low"  "Medium"  "High");
}

node SLMR_EPT
{
    label = "EPT taxa";
    position = (844 -9);
    states = ("Low"  "Medium"  "High");
}

node SLMR_Shredders
{
    label = "Shredders";
    position = (234 729);
    states = ("Low"  "Medium"  "High");
}

node SLMR_Trichoptera
{
    label = "Trichoptera taxa";
    position = (1441 443);
    states = ("Low"  "Medium"  "High");
}

potential (SLMR_Agriculture |)
{
    data = (0.40000000 0.15000000 0.45000000);
}

potential (SLMR_Urban |)
{
    data = (0.35000000 0.35000000 0.30000000);
}

potential (SLMR_Flow |)
{
    data = (0.25000000 0.45000000 0.30000000);
}

potential (SLMR_Fines | SLMR_Urban SLMR_Agriculture)
{
    data = (((0.95000000 0.04000000 0.01000000)
        (0.80000000 0.15000000 0.05000000)
        (0.50000000 0.20000000 0.30000000))
        ((0.80000000 0.15000000 0.05000000)
        (0.60000000 0.20000000 0.20000000)
        (0.30000000 0.25000000 0.45000000))
        ((0.65000000 0.15000000 0.20000000)
        (0.40000000 0.25000000 0.35000000)
        (0.25000000 0.30000000 0.45000000)));
}

potential (SLMR_Substrate | SLMR_Flow SLMR_Fines)
{
    data = (((0.85000000 0.14000000 0.01000000)
        (0.45000000 0.50000000 0.05000000)
        (0.40000000 0.50000000 0.10000000))
        ((0.25000000 0.55000000 0.20000000)
        (0.10000000 0.70000000 0.20000000)
        (0.10000000 0.35000000 0.55000000))
        ((0.05000000 0.15000000 0.80000000)
        (0.01000000 0.19000000 0.80000000)
        (0.01000000 0.14000000 0.85000000)));
}

potential (SLMR_FI | SLMR_Substrate SLMR_Flow SLMR_Urban)
{
    data = ((((0.01000000 0.01000000 0.98000000)
        (0.01000000 0.04000000 0.95000000)
        (0.01000000 0.09000000 0.90000000))
        ((0.01000000 0.01000000 0.98000000)
        (0.01000000 0.09000000 0.90000000)
        (0.10000000 0.05000000 0.85000000))
        ((0.01000000 0.09000000 0.90000000)
        (0.15000000 0.05000000 0.80000000)
        (0.20000000 0.10000000 0.70000000)))
        (((0.01000000 0.14000000 0.85000000)
        (0.01000000 0.29000000 0.70000000)
        (0.01000000 0.34000000 0.65000000))
        ((0.01000000 0.24000000 0.75000000)
        (0.20000000 0.15000000 0.65000000)
        (0.30000000 0.10000000 0.60000000))
        ((0.01000000 0.24000000 0.75000000)
        (0.01000000 0.29000000 0.70000000)
        (0.35000000 0.05000000 0.60000000)))
        (((0.10000000 0.30000000 0.60000000)
        (0.20000000 0.35000000 0.45000000)
        (0.40000000 0.20000000 0.40000000))
        ((0.10000000 0.35000000 0.55000000)
        (0.15000000 0.45000000 0.40000000)
        (0.50000000 0.20000000 0.30000000))
        ((0.20000000 0.30000000 0.50000000)
        (0.25000000 0.50000000 0.25000000)
        (0.70000000 0.10000000 0.20000000))));
}

potential (SLMR_Width |)
{
    data = (0.25000000 0.50000000 0.25000000);
}

potential (SLMR_Bank |)
{
    data = (0.45000000 0.55000000);
}

potential (SLMR_Psammal | SLMR_Agriculture SLMR_Width)
{
    data = (((0.70000000 0.30000000)
        (0.60000000 0.40000000)
        (0.45000000 0.55000000))
        ((0.30000000 0.70000000)
        (0.45000000 0.55000000)
        (0.40000000 0.60000000))
        ((0.45000000 0.55000000)
        (0.30000000 0.70000000)
        (0.20000000 0.80000000)));
}

potential (SLMR_Rheoindex | SLMR_Urban SLMR_Substrate SLMR_Flow)
{
    data = ((((0.01000000 0.01000000 0.98000000)
        (0.01000000 0.04000000 0.95000000)
        (0.01000000 0.29000000 0.70000000))
        ((0.01000000 0.01000000 0.98000000)
        (0.01000000 0.19000000 0.80000000)
        (0.30000000 0.25000000 0.45000000))
        ((0.01000000 0.19000000 0.80000000)
        (0.01000000 0.64000000 0.35000000)
        (0.01000000 0.49000000 0.50000000)))
        (((0.01000000 0.14000000 0.85000000)
        (0.10000000 0.20000000 0.70000000)
        (0.01000000 0.34000000 0.65000000))
        ((0.35000000 0.15000000 0.50000000)
        (0.15000000 0.15000000 0.70000000)
        (0.01000000 0.39000000 0.60000000))
        ((0.10000000 0.25000000 0.65000000)
        (0.15000000 0.25000000 0.60000000)
        (0.30000000 0.45000000 0.25000000)))
        (((0.10000000 0.20000000 0.70000000)
        (0.25000000 0.20000000 0.55000000)
        (0.65000000 0.15000000 0.20000000))
        ((0.25000000 0.15000000 0.60000000)
        (0.45000000 0.25000000 0.30000000)
        (0.80000000 0.10000000 0.10000000))
        ((0.30000000 0.20000000 0.50000000)
        (0.55000000 0.20000000 0.25000000)
        (0.80000000 0.19000000 0.01000000))));
}

potential (SLMR_Temperature |)
{
    data = (0.75000000 0.25000000);
}

potential (SLMR_KLIWA | SLMR_Temperature)
{
    data = ((0.80000000 0.20000000)
        (0.20000000 0.80000000));
}

potential (SLMR_Hyporhithral | SLMR_Substrate SLMR_Bank SLMR_Urban)
{
    data = ((((0.70000000 0.20000000 0.10000000)
        (0.25000000 0.65000000 0.10000000)
        (0.20000000 0.65000000 0.15000000))
        ((0.65000000 0.34000000 0.01000000)
        (0.15000000 0.75000000 0.10000000)
        (0.10000000 0.70000000 0.20000000)))
        (((0.30000000 0.65000000 0.05000000)
        (0.25000000 0.40000000 0.35000000)
        (0.10000000 0.50000000 0.40000000))
        ((0.25000000 0.35000000 0.40000000)
        (0.20000000 0.30000000 0.50000000)
        (0.10000000 0.35000000 0.55000000)))
        (((0.20000000 0.60000000 0.20000000)
        (0.15000000 0.30000000 0.55000000)
        (0.05000000 0.35000000 0.60000000))
        ((0.25000000 0.50000000 0.25000000)
        (0.01000000 0.24000000 0.75000000)
        (0.01000000 0.05000000 0.94000000))));
}

potential (SLMR_Nutrients |)
{
    data = (0.70000000 0.30000000);
}

potential (SLMR_TI | SLMR_Nutrients)
{
    data = ((0.85000000 0.14000000 0.01000000)
        (0.05000000 0.35000000 0.60000000));
}

potential (SLMR_SI | SLMR_Nutrients SLMR_Flow SLMR_Agriculture)
{
    data = ((((0.65000000 0.34000000 0.01000000)
        (0.55000000 0.40000000 0.05000000)
        (0.50000000 0.35000000 0.15000000))
        ((0.50000000 0.49000000 0.01000000)
        (0.40000000 0.40000000 0.20000000)
        (0.35000000 0.45000000 0.20000000))
        ((0.50000000 0.30000000 0.20000000)
        (0.35000000 0.45000000 0.20000000)
        (0.30000000 0.40000000 0.30000000)))
        (((0.35000000 0.35000000 0.30000000)
        (0.25000000 0.55000000 0.20000000)
        (0.10000000 0.75000000 0.15000000))
        ((0.25000000 0.40000000 0.35000000)
        (0.15000000 0.40000000 0.45000000)
        (0.01000000 0.54000000 0.45000000))
        ((0.20000000 0.30000000 0.50000000)
        (0.10000000 0.30000000 0.60000000)
        (0.01000000 0.39000000 0.60000000))));
}

potential (SLMR_Epirhithral | SLMR_Substrate SLMR_Temperature)
{
    data = (((0.10000000 0.15000000 0.75000000)
        (0.55000000 0.25000000 0.20000000))
        ((0.20000000 0.20000000 0.60000000)
        (0.60000000 0.20000000 0.20000000))
        ((0.20000000 0.45000000 0.35000000)
        (0.75000000 0.15000000 0.10000000)));
}

potential (SLMR_AFF | SLMR_Agriculture SLMR_Width)
{
    data = (((0.99000000 0.01000000)
        (0.95000000 0.05000000)
        (0.70000000 0.30000000))
        ((0.70000000 0.30000000)
        (0.65000000 0.35000000)
        (0.45000000 0.55000000))
        ((0.45000000 0.55000000)
        (0.40000000 0.60000000)
        (0.30000000 0.70000000)));
}

potential (SLMR_EPTCBO | SLMR_Flow SLMR_Substrate SLMR_Fines)
{
    data = ((((0.01000000 0.24000000 0.75000000)
        (0.20000000 0.25000000 0.55000000)
        (0.30000000 0.20000000 0.50000000))
        ((0.10000000 0.25000000 0.65000000)
        (0.25000000 0.30000000 0.45000000)
        (0.35000000 0.25000000 0.40000000))
        ((0.20000000 0.30000000 0.50000000)
        (0.30000000 0.30000000 0.40000000)
        (0.40000000 0.30000000 0.30000000)))
        (((0.15000000 0.20000000 0.65000000)
        (0.15000000 0.30000000 0.55000000)
        (0.35000000 0.25000000 0.40000000))
        ((0.20000000 0.25000000 0.55000000)
        (0.20000000 0.50000000 0.30000000)
        (0.40000000 0.30000000 0.30000000))
        ((0.25000000 0.25000000 0.50000000)
        (0.35000000 0.30000000 0.35000000)
        (0.50000000 0.25000000 0.25000000)))
        (((0.25000000 0.20000000 0.55000000)
        (0.35000000 0.25000000 0.40000000)
        (0.45000000 0.20000000 0.35000000))
        ((0.30000000 0.25000000 0.45000000)
        (0.40000000 0.30000000 0.30000000)
        (0.50000000 0.20000000 0.30000000))
        ((0.35000000 0.25000000 0.40000000)
        (0.50000000 0.25000000 0.25000000)
        (0.60000000 0.30000000 0.10000000))));
}

potential (SLMR_Littoral | SLMR_Substrate SLMR_Flow)
{
    data = (((0.75000000 0.24000000 0.01000000)
        (0.60000000 0.25000000 0.15000000)
        (0.50000000 0.30000000 0.20000000))
        ((0.30000000 0.69000000 0.01000000)
        (0.50000000 0.35000000 0.15000000)
        (0.20000000 0.15000000 0.65000000))
        ((0.25000000 0.65000000 0.10000000)
        (0.25000000 0.50000000 0.25000000)
        (0.20000000 0.40000000 0.40000000)));
}

potential (SLMR_SpecialCrops |)
{
    data = (0.90000000 0.10000000);
}

potential (SLMR_SPEAR | SLMR_Agriculture SLMR_SpecialCrops SLMR_Urban)
{
    data = ((((0.05000000 0.10000000 0.85000000)
        (0.10000000 0.10000000 0.80000000)
        (0.10000000 0.15000000 0.75000000))
        ((0.15000000 0.15000000 0.70000000)
        (0.20000000 0.15000000 0.65000000)
        (0.25000000 0.15000000 0.60000000)))
        (((0.10000000 0.10000000 0.80000000)
        (0.10000000 0.15000000 0.75000000)
        (0.20000000 0.20000000 0.60000000))
        ((0.20000000 0.15000000 0.65000000)
        (0.20000000 0.20000000 0.60000000)
        (0.25000000 0.20000000 0.55000000)))
        (((0.10000000 0.15000000 0.75000000)
        (0.15000000 0.20000000 0.65000000)
        (0.20000000 0.15000000 0.65000000))
        ((0.20000000 0.15000000 0.65000000)
        (0.25000000 0.20000000 0.55000000)
        (0.30000000 0.20000000 0.50000000))));
}

potential (SLMR_EPT | SLMR_Flow SLMR_Substrate SLMR_Temperature)
{
    data = ((((0.01000000 0.01000000 0.98000000)
        (0.05000000 0.15000000 0.80000000))
        ((0.10000000 0.10000000 0.80000000)
        (0.20000000 0.05000000 0.75000000))
        ((0.70000000 0.10000000 0.20000000)
        (0.80000000 0.10000000 0.10000000)))
        (((0.10000000 0.10000000 0.80000000)
        (0.20000000 0.10000000 0.70000000))
        ((0.01000000 0.19000000 0.80000000)
        (0.30000000 0.55000000 0.15000000))
        ((0.25000000 0.30000000 0.45000000)
        (0.70000000 0.25000000 0.05000000)))
        (((0.25000000 0.20000000 0.55000000)
        (0.75000000 0.15000000 0.10000000))
        ((0.20000000 0.10000000 0.70000000)
        (0.80000000 0.05000000 0.15000000))
        ((0.25000000 0.15000000 0.60000000)
        (0.80000000 0.05000000 0.15000000))));
}

potential (SLMR_Shredders | SLMR_Bank SLMR_Width)
{
    data = (((0.10000000 0.30000000 0.60000000)
        (0.25000000 0.30000000 0.45000000)
        (0.25000000 0.40000000 0.35000000))
        ((0.45000000 0.35000000 0.20000000)
        (0.50000000 0.45000000 0.05000000)
        (0.65000000 0.34000000 0.01000000)));
}

potential (SLMR_Trichoptera | SLMR_Bank SLMR_Substrate)
{
    data = (((0.25000000 0.30000000 0.45000000)
        (0.35000000 0.30000000 0.35000000)
        (0.55000000 0.20000000 0.25000000))
        ((0.45000000 0.30000000 0.25000000)
        (0.55000000 0.25000000 0.20000000)
        (0.60000000 0.30000000 0.10000000)));
}
