net 
{
    node_size = (76 36);
}

node SRPAR_Bank
{
    label = "Bank vegetation cover";
    position = (1525 279);
    states = ("Natural_to_moderately_modified" 
     "Significantly_to_heavily_modified" 
     "Very_heavily_to_completely_modified");
}

node SRPAR_Agriculture
{
    label = "Agriculture";
    position = (1134 703);
    states = ("Low"  "Medium"  "High");
}

node SRPAR_Flow
{
    label = "Flow diversity & depth variance";
    position = (935 7);
    states = ("Natural_to_significantly_modified" 
     "Heavily_to_completely_modified");
}

node SRPAR_Grassland
{
    label = "Intensive grassland";
    position = (950 375);
    states = ("Low"  "Medium"  "High");
}

node SRPAR_Urban
{
    label = "Urbanized area";
    position = (414 652);
    states = ("Low"  "High");
}

node SRPAR_Fines
{
    label = "Fine sediments";
    position = (685 416);
    states = ("Low"  "Medium"  "High"  "Very_high");
}

node SRPAR_Substrate
{
    label = "Substrate diversity";
    position = (224 404);
    states = ("Natural_to_significantly_modified" 
     "Heavily_to_completely_modified");
}

node SRPAR_FI
{
    label = "German Fauna Index";
    position = (221 258);
    states = ("Low"  "Medium"  "High");
}

node SRPAR_Coleoptera
{
    label = "Coleoptera taxa";
    position = (960 271);
    states = ("Low"  "High");
}

node SRPAR_Temperature
{
    label = "Water temperature";
    position = (285 108);
    states = ("No"  "Yes");
}

node SRPAR_KLIWA
{
    label = "KLIWA Index MZB";
    position = (585 -30);
    states = ("Low"  "High");
}

node SRPAR_Epirhithral
{
    label = "Epirhithral preference";
    position = (645 547);
    states = ("Low"  "Medium"  "High");
}

node SRPAR_EPT
{
    label = "EPT taxa";
    position = (576 104);
    states = ("Low"  "Medium"  "High");
}

node SRPAR_EPTCBO
{
    label = "EPTCBO taxa";
    position = (232 535);
    states = ("Low"  "Medium"  "High");
}

node SRPAR_Littoral
{
    label = "Littoral preference";
    position = (1695 442);
    states = ("Low"  "Medium"  "High");
}

node SRPAR_AFF
{
    label = "Active filter feeders";
    position = (990 524);
    states = ("Low"  "High");
}

node SRPAR_SpecialCrops
{
    label = "Special crops";
    position = (555 759);
    states = ("Low"  "High");
}

node SRPAR_Nutrients
{
    label = "Nutrients";
    position = (1417 689);
    states = ("No"  "Yes");
}

node SRPAR_TI
{
    label = "Trophic Diatom Index";
    position = (1587 585);
    states = ("Low"  "Medium"  "High");
}

node SRPAR_SPEAR
{
    label = "SPEARpesticides";
    position = (726 650);
    states = ("Low"  "Medium"  "High");
}

node SRPAR_SI
{
    label = "German Saprobic Index";
    position = (1392 492);
    states = ("Low"  "Medium"  "High");
}

node SRPAR_Rheoindex
{
    label = " Rheoindex ";
    position = (1044 113);
    states = ("Low"  "Medium"  "High");
}

node SRPAR_Pelal
{
    label = "Pelal preference";
    position = (1261 134);
    states = ("Low"  "Medium"  "High");
}

node SRPAR_Trichoptera
{
    label = "Trichoptera taxa";
    position = (851 752);
    states = ("Low"  "Medium"  "High");
}

node SRPAR_Hyporhithral
{
    label = "Hyporhithral preference";
    position = (687 258);
    states = ("Low"  "Medium"  "High");
}

potential (SRPAR_Bank |)
{
    data = (0.25000000 0.60000000 0.15000000);
}

potential (SRPAR_Agriculture |)
{
    data = (0.45000000 0.30000000 0.25000000);
}

potential (SRPAR_Flow |)
{
    data = (0.40000000 0.60000000);
}

potential (SRPAR_Grassland |)
{
    data = (0.35000000 0.35000000 0.30000000);
}

potential (SRPAR_Urban |)
{
    data = (0.55000000 0.45000000);
}

potential (SRPAR_Fines | SRPAR_Grassland SRPAR_Agriculture)
{
    data = (((0.97000000 0.01000000 0.01000000 0.01000000)
        (0.55000000 0.43000000 0.01000000 0.01000000)
        (0.45000000 0.10000000 0.30000000 0.15000000))
        ((0.90000000 0.08000000 0.01000000 0.01000000)
        (0.50000000 0.48000000 0.01000000 0.01000000)
        (0.40000000 0.15000000 0.25000000 0.20000000))
        ((0.85000000 0.13000000 0.01000000 0.01000000)
        (0.45000000 0.25000000 0.20000000 0.10000000)
        (0.30000000 0.20000000 0.30000000 0.20000000)));
}

potential (SRPAR_Substrate | SRPAR_Flow)
{
    data = ((0.75000000 0.25000000)
        (0.15000000 0.85000000));
}

potential (SRPAR_FI | SRPAR_Substrate SRPAR_Grassland SRPAR_Fines)
{
    data = ((((0.05000000 0.15000000 0.80000000)
        (0.05000000 0.20000000 0.75000000)
        (0.15000000 0.20000000 0.65000000)
        (0.20000000 0.25000000 0.55000000))
        ((0.05000000 0.15000000 0.80000000)
        (0.05000000 0.20000000 0.75000000)
        (0.10000000 0.15000000 0.75000000)
        (0.15000000 0.25000000 0.60000000))
        ((0.05000000 0.10000000 0.85000000)
        (0.05000000 0.15000000 0.80000000)
        (0.10000000 0.15000000 0.75000000)
        (0.15000000 0.25000000 0.60000000)))
        (((0.10000000 0.15000000 0.75000000)
        (0.10000000 0.20000000 0.70000000)
        (0.20000000 0.15000000 0.65000000)
        (0.25000000 0.25000000 0.50000000))
        ((0.05000000 0.15000000 0.80000000)
        (0.05000000 0.20000000 0.75000000)
        (0.15000000 0.15000000 0.70000000)
        (0.20000000 0.25000000 0.55000000))
        ((0.05000000 0.10000000 0.85000000)
        (0.05000000 0.15000000 0.80000000)
        (0.15000000 0.15000000 0.70000000)
        (0.20000000 0.20000000 0.60000000))));
}

potential (SRPAR_Coleoptera | SRPAR_Bank)
{
    data = ((0.70000000 0.30000000)
        (0.45000000 0.55000000)
        (0.30000000 0.70000000));
}

potential (SRPAR_Temperature |)
{
    data = (0.45000000 0.55000000);
}

potential (SRPAR_KLIWA | SRPAR_Temperature)
{
    data = ((0.80000000 0.20000000)
        (0.20000000 0.80000000));
}

potential (SRPAR_Epirhithral | SRPAR_Agriculture SRPAR_Temperature)
{
    data = (((0.15000000 0.10000000 0.75000000)
        (0.80000000 0.19000000 0.01000000))
        ((0.40000000 0.35000000 0.25000000)
        (0.90000000 0.05000000 0.05000000))
        ((0.01000000 0.69000000 0.30000000)
        (0.90000000 0.05000000 0.05000000)));
}

potential (SRPAR_EPT | SRPAR_Temperature SRPAR_Bank SRPAR_Substrate)
{
    data = ((((0.05000000 0.35000000 0.60000000)
        (0.05000000 0.45000000 0.50000000))
        ((0.10000000 0.45000000 0.45000000)
        (0.15000000 0.50000000 0.35000000))
        ((0.20000000 0.40000000 0.40000000)
        (0.25000000 0.45000000 0.30000000)))
        (((0.10000000 0.40000000 0.50000000)
        (0.20000000 0.55000000 0.25000000))
        ((0.15000000 0.45000000 0.40000000)
        (0.20000000 0.55000000 0.25000000))
        ((0.30000000 0.40000000 0.30000000)
        (0.35000000 0.50000000 0.15000000))));
}

potential (SRPAR_EPTCBO | SRPAR_Substrate SRPAR_Fines SRPAR_Urban)
{
    data = ((((0.01000000 0.44000000 0.55000000)
        (0.20000000 0.30000000 0.50000000))
        ((0.20000000 0.40000000 0.40000000)
        (0.25000000 0.45000000 0.30000000))
        ((0.30000000 0.40000000 0.30000000)
        (0.50000000 0.40000000 0.10000000))
        ((0.55000000 0.44000000 0.01000000)
        (0.60000000 0.39000000 0.01000000)))
        (((0.01000000 0.49000000 0.50000000)
        (0.10000000 0.35000000 0.55000000))
        ((0.35000000 0.40000000 0.25000000)
        (0.40000000 0.45000000 0.15000000))
        ((0.45000000 0.54000000 0.01000000)
        (0.50000000 0.49000000 0.01000000))
        ((0.50000000 0.49000000 0.01000000)
        (0.60000000 0.39000000 0.01000000))));
}

potential (SRPAR_Littoral | SRPAR_Bank SRPAR_Grassland SRPAR_Agriculture)
{
    data = ((((0.50000000 0.30000000 0.20000000)
        (0.40000000 0.30000000 0.30000000)
        (0.35000000 0.25000000 0.40000000))
        ((0.50000000 0.35000000 0.15000000)
        (0.25000000 0.50000000 0.25000000)
        (0.35000000 0.35000000 0.30000000))
        ((0.65000000 0.25000000 0.10000000)
        (0.55000000 0.30000000 0.15000000)
        (0.50000000 0.25000000 0.25000000)))
        (((0.40000000 0.35000000 0.25000000)
        (0.30000000 0.40000000 0.30000000)
        (0.20000000 0.35000000 0.45000000))
        ((0.40000000 0.45000000 0.15000000)
        (0.30000000 0.50000000 0.20000000)
        (0.30000000 0.45000000 0.25000000))
        ((0.55000000 0.35000000 0.10000000)
        (0.50000000 0.40000000 0.10000000)
        (0.30000000 0.50000000 0.20000000)))
        (((0.30000000 0.30000000 0.40000000)
        (0.20000000 0.35000000 0.45000000)
        (0.20000000 0.30000000 0.50000000))
        ((0.35000000 0.35000000 0.30000000)
        (0.25000000 0.40000000 0.35000000)
        (0.20000000 0.35000000 0.45000000))
        ((0.50000000 0.30000000 0.20000000)
        (0.40000000 0.30000000 0.30000000)
        (0.35000000 0.30000000 0.35000000))));
}

potential (SRPAR_AFF | SRPAR_Agriculture SRPAR_Grassland SRPAR_Bank)
{
    data = ((((0.75000000 0.25000000)
        (0.70000000 0.30000000)
        (0.65000000 0.35000000))
        ((0.80000000 0.20000000)
        (0.75000000 0.25000000)
        (0.70000000 0.30000000))
        ((0.85000000 0.15000000)
        (0.80000000 0.20000000)
        (0.75000000 0.25000000)))
        (((0.70000000 0.30000000)
        (0.65000000 0.35000000)
        (0.60000000 0.40000000))
        ((0.75000000 0.25000000)
        (0.70000000 0.30000000)
        (0.65000000 0.35000000))
        ((0.80000000 0.20000000)
        (0.75000000 0.25000000)
        (0.70000000 0.30000000)))
        (((0.60000000 0.40000000)
        (0.55000000 0.45000000)
        (0.50000000 0.50000000))
        ((0.65000000 0.35000000)
        (0.60000000 0.40000000)
        (0.55000000 0.45000000))
        ((0.70000000 0.30000000)
        (0.65000000 0.35000000)
        (0.60000000 0.40000000))));
}

potential (SRPAR_SpecialCrops |)
{
    data = (0.90000000 0.10000000);
}

potential (SRPAR_Nutrients |)
{
    data = (0.45000000 0.55000000);
}

potential (SRPAR_TI | SRPAR_Nutrients)
{
    data = ((0.85000000 0.14000000 0.01000000)
        (0.10000000 0.40000000 0.50000000));
}

potential (SRPAR_SPEAR | SRPAR_Agriculture SRPAR_SpecialCrops SRPAR_Urban)
{
    data = ((((0.01000000 0.09000000 0.90000000)
        (0.10000000 0.10000000 0.80000000))
        ((0.10000000 0.15000000 0.75000000)
        (0.15000000 0.25000000 0.60000000)))
        (((0.10000000 0.20000000 0.70000000)
        (0.30000000 0.15000000 0.55000000))
        ((0.35000000 0.25000000 0.40000000)
        (0.40000000 0.30000000 0.30000000)))
        (((0.25000000 0.40000000 0.35000000)
        (0.20000000 0.40000000 0.40000000))
        ((0.60000000 0.39000000 0.01000000)
        (0.65000000 0.34000000 0.01000000))));
}

potential (SRPAR_SI | SRPAR_Nutrients SRPAR_Bank SRPAR_Fines)
{
    data = ((((0.40000000 0.45000000 0.15000000)
        (0.40000000 0.50000000 0.10000000)
        (0.35000000 0.50000000 0.15000000)
        (0.35000000 0.40000000 0.25000000))
        ((0.35000000 0.45000000 0.20000000)
        (0.20000000 0.65000000 0.15000000)
        (0.25000000 0.50000000 0.25000000)
        (0.25000000 0.40000000 0.35000000))
        ((0.25000000 0.35000000 0.40000000)
        (0.25000000 0.40000000 0.35000000)
        (0.20000000 0.40000000 0.40000000)
        (0.25000000 0.40000000 0.35000000)))
        (((0.30000000 0.55000000 0.15000000)
        (0.25000000 0.65000000 0.10000000)
        (0.15000000 0.65000000 0.20000000)
        (0.20000000 0.50000000 0.30000000))
        ((0.20000000 0.55000000 0.25000000)
        (0.20000000 0.65000000 0.15000000)
        (0.15000000 0.65000000 0.20000000)
        (0.15000000 0.50000000 0.35000000))
        ((0.10000000 0.50000000 0.40000000)
        (0.10000000 0.55000000 0.35000000)
        (0.10000000 0.65000000 0.25000000)
        (0.05000000 0.45000000 0.50000000))));
}

potential (SRPAR_Rheoindex | SRPAR_Flow SRPAR_Agriculture)
{
    data = (((0.01000000 0.19000000 0.80000000)
        (0.15000000 0.50000000 0.35000000)
        (0.15000000 0.30000000 0.55000000))
        ((0.15000000 0.55000000 0.30000000)
        (0.01000000 0.24000000 0.75000000)
        (0.30000000 0.20000000 0.50000000)));
}

potential (SRPAR_Pelal | SRPAR_Bank SRPAR_Agriculture)
{
    data = (((0.70000000 0.25000000 0.05000000)
        (0.40000000 0.25000000 0.35000000)
        (0.35000000 0.15000000 0.50000000))
        ((0.45000000 0.30000000 0.25000000)
        (0.30000000 0.25000000 0.45000000)
        (0.15000000 0.20000000 0.65000000))
        ((0.30000000 0.20000000 0.50000000)
        (0.25000000 0.20000000 0.55000000)
        (0.05000000 0.15000000 0.80000000)));
}

potential (SRPAR_Trichoptera | SRPAR_SpecialCrops SRPAR_Bank)
{
    data = (((0.10000000 0.25000000 0.65000000)
        (0.25000000 0.35000000 0.40000000)
        (0.35000000 0.40000000 0.25000000))
        ((0.31000000 0.59000000 0.10000000)
        (0.60000000 0.39000000 0.01000000)
        (0.75000000 0.24000000 0.01000000)));
}

potential (SRPAR_Hyporhithral | SRPAR_Substrate SRPAR_Grassland)
{
    data = (((0.45000000 0.35000000 0.20000000)
        (0.25000000 0.50000000 0.25000000)
        (0.10000000 0.40000000 0.50000000))
        ((0.25000000 0.30000000 0.45000000)
        (0.15000000 0.40000000 0.45000000)
        (0.05000000 0.35000000 0.60000000)));
}
